tree
version=v4
num_class=1
num_tree_per_iteration=1
label_index=0
max_feature_idx=35
objective=binary sigmoid:1
feature_names=signal_type confidence volume_confirmed momentum_confirmed risk_reward stop_loss_pct target_pct trend_5m trend_15m trend_daily trend_aligned_15m trend_aligned_daily distance_to_vwap_pct distance_to_ema20_pct distance_to_ema50_pct above_vwap above_ema20 atr_percent pcr iv oi_sentiment oi_aligned hour_of_day minute_of_hour day_of_week minutes_from_open is_first_hour is_last_hour is_lunch_hour india_vix vix_regime is_choppy is_breakout is_retest is_reversal is_inside_bar
feature_infos=-1:2:3:0:1 [60.043889651506746:89.998086807327439] none none none [0.0094833739212662176:0.16848730158044137] [0.018966747842532435:0.33697460316088274] -1:0:1 -1:0:1 none [0:1] none [-0.62214452756141814:0.43035130152194057] [-0.56477547456348032:0.37365158470368243] [-0.56477547456348032:0.37365158470368243] [0:1] [0:1] none [0.80234296316763876:1.1975290133569536] [12.124199837805673:17.853536269885318] -1:0:1 none none none none none none none none none none none none none none none
tree_sizes=558 667 570 669 585 670 565 561 581 569 563 580 668 568 665 568 585 584 571 565 564 569 581 565 567 672 569 565 572 563 564 581 582 566 571 569 565 568 585 571 565 566 568 571 562 569 562 568 562 572

Tree=0
num_leaves=4
num_cat=0
split_feature=12 5 1
split_gain=4.88878 4.47341 1.62487
threshold=0.012419996171503698 0.044329014417665229 75.094729977117794
decision_type=2 2 2
left_child=2 -2 -1
right_child=1 -3 -4
leaf_value=-0.38310620403280438 -0.25350026835967598 -0.37776162936587127 -0.45139799144361659
leaf_weight=7.4842251241207141 4.8285323381423932 7.2427985072135925 6.5185186564922333
leaf_count=31 20 30 27
internal_value=-0.374693 -0.328057 -0.414897
internal_weight=26.0741 12.0713 14.0027
internal_count=108 50 58
is_linear=0
shrinkage=1


Tree=1
num_leaves=5
num_cat=0
split_feature=5 1 19 12
split_gain=4.52296 4.88755 1.9603 1.66238
threshold=0.027262345066980737 67.338734004135674 16.290549946286941 0.028632305684172039
decision_type=2 2 2 2
left_child=-1 -2 3 -3
right_child=1 2 -4 -5
leaf_value=0.084553121256576505 0.06467623040591873 -0.11089328294595974 0.0017438539345270402 -0.031529235726975254
leaf_weight=5.0866279453039196 5.0925841927528408 5.4972565770149213 5.2961317002773276 5.0765421390533447
leaf_count=21 21 23 22 21
internal_value=-3.73611e-05 -0.0205635 -0.0479166 -0.0727901
internal_weight=26.0491 20.9625 15.8699 10.5738
internal_count=108 87 66 44
is_linear=0
shrinkage=0.1


Tree=2
num_leaves=4
num_cat=0
split_feature=12 5 18
split_gain=3.74249 3.05091 1.52721
threshold=0.012419996171503698 0.044329014417665229 0.94978778222214966
decision_type=2 2 2
left_child=2 -2 -1
right_child=1 -3 -4
leaf_value=-0.071367970063324543 0.10084989320406108 -0.0011016841083492698 -0.0047418984736792829
leaf_weight=6.4193964600563067 4.9489503204822523 7.2136348634958267 7.4136825054883957
leaf_count=27 20 30 31
internal_value=-8.23314e-05 0.0403824 -0.0356605
internal_weight=25.9957 12.1626 13.8331
internal_count=108 50 58
is_linear=0
shrinkage=0.1


Tree=3
num_leaves=5
num_cat=0
split_feature=5 1 19 12
split_gain=3.36197 3.80149 1.60152 1.28004
threshold=0.027262345066980737 67.338734004135674 16.290549946286941 0.028632305684172039
decision_type=2 2 2 2
left_child=-1 -2 3 -3
right_child=1 2 -4 -5
leaf_value=0.072219905030935352 0.056590669962142327 -0.099771504798886426 0.0022469400579438448 -0.029412660928914827
leaf_weight=5.1510261446237591 5.1376791298389461 5.2976077497005445 5.281059354543685 5.0512654334306717
leaf_count=21 21 23 22 21
internal_value=-9.66065e-05 -0.0180334 -0.0425629 -0.0654295
internal_weight=25.9186 20.7676 15.6299 10.3489
internal_count=108 87 66 44
is_linear=0
shrinkage=0.1


Tree=4
num_leaves=4
num_cat=1
split_feature=12 5 7
split_gain=2.88989 2.29958 1.31277
threshold=0.012419996171503698 0.059082195269798334 0
decision_type=2 2 1
left_child=2 -2 -1
right_child=1 -3 -4
leaf_value=-0.058897882903104139 0.073224985256059499 -0.014499480651720929 0.0037262896467380848
leaf_weight=7.7228303849697131 6.9086676687002164 5.2657782286405563 5.9082294553518295
leaf_count=33 28 22 25
internal_value=-0.000128133 0.0352818 -0.0317541
internal_weight=25.8055 12.1744 13.6311
internal_count=108 50 58
cat_boundaries=0 1
cat_threshold=1
is_linear=0
shrinkage=0.1


Tree=5
num_leaves=5
num_cat=0
split_feature=5 1 19 12
split_gain=2.56258 3.05781 1.29438 0.996166
threshold=0.027262345066980737 67.338734004135674 16.290549946286941 0.028632305684172039
decision_type=2 2 2 2
left_child=-1 -2 3 -3
right_child=1 2 -4 -5
leaf_value=0.062769564831391053 0.050672479509859807 -0.090471021274262819 0.0018662436966192274 -0.027696145713343685
leaf_weight=5.1732749640941647 5.1553683429956463 5.0842534601688367 5.2697055637836447 5.0276613831520081
leaf_count=21 21 23 22 21
internal_value=-0.000133424 -0.0159787 -0.0383178 -0.0592592
internal_weight=25.7103 20.537 15.3816 10.1119
internal_count=108 87 66 44
is_linear=0
shrinkage=0.1


Tree=6
num_leaves=4
num_cat=0
split_feature=12 13 5
split_gain=2.246 1.79945 1.17722
threshold=0.012419996171503698 0.09472540900376053 0.034382240401582588
decision_type=2 2 2
left_child=2 -2 -1
right_child=1 -3 -4
leaf_value=0.0092908976995759521 0.065084752924916486 -0.012460326099603293 -0.051665347463871705
leaf_weight=5.12935243546963 6.8072027564048749 5.3399420231580734 8.2867954522371274
leaf_count=22 28 22 36
internal_value=-0.000155543 0.0309956 -0.0283601
internal_weight=25.5633 12.1471 13.4161
internal_count=108 50 58
is_linear=0
shrinkage=0.1


Tree=7
num_leaves=4
num_cat=0
split_feature=1 1 18
split_gain=1.96953 2.45781 1.7369
threshold=67.338734004135674 81.810561993952035 1.0026328216450555
decision_type=2 2 2
left_child=-1 2 -2
right_child=1 -3 -4
leaf_value=0.050477575975452153 -0.012064168126369838 0.036091557703756383 -0.086910116941163518
leaf_weight=5.9028306454420116 8.372982397675516 6.2890401482582083 4.9238889813423148
leaf_count=24 36 27 21
internal_value=-0.000157207 -0.0154176 -0.0397799
internal_weight=25.4887 19.5859 13.2969
internal_count=108 84 57
is_linear=0
shrinkage=0.1


Tree=8
num_leaves=4
num_cat=1
split_feature=5 7 12
split_gain=1.9046 2.41364 2.6683
threshold=0.027262345066980737 0 0.021310051993217522
decision_type=2 1 2
left_child=-1 -2 -3
right_child=1 2 -4
leaf_value=0.053965298029513532 -0.053044350951505219 -0.027256249807619922 0.070122035883335557
leaf_weight=5.1773622334003475 8.8862715512514114 6.2599684447050095 5.1116248071193695
leaf_count=21 38 28 21
internal_value=-0.00016333 -0.0139971 0.0165161
internal_weight=25.4352 20.2579 11.3716
internal_count=108 87 49
cat_boundaries=0 1
cat_threshold=2
is_linear=0
shrinkage=0.1


Tree=9
num_leaves=4
num_cat=0
split_feature=13 13 12
split_gain=1.7068 1.45374 1.50172
threshold=-0.090135090757086658 0.10769692330197679 0.012419996171503698
decision_type=2 2 2
left_child=-1 2 -2
right_child=1 -3 -4
leaf_value=-0.049732888975361225 -0.0029008101198610141 -0.034629552435507513 0.060211499980693375
leaf_weight=5.4509918838739422 7.5372993201017398 4.7779359966516486 7.5433461219072342
leaf_count=24 33 20 31
internal_value=-0.000166714 0.0134387 0.028668
internal_weight=25.3096 19.8586 15.0806
internal_count=108 84 64
is_linear=0
shrinkage=0.1


Tree=10
num_leaves=4
num_cat=0
split_feature=1 1 18
split_gain=1.59167 1.99673 1.47005
threshold=67.338734004135674 81.810561993952035 1.0026328216450555
decision_type=2 2 2
left_child=-1 2 -2
right_child=1 -3 -4
leaf_value=0.045396614691124416 -0.010768036722126218 0.032375034041292515 -0.08035933932767321
leaf_weight=5.8810067176818874 8.2877407521009463 6.2722905129194251 4.7896868735551825
leaf_count=24 36 27 21
internal_value=-0.000162316 -0.0140092 -0.0362563
internal_weight=25.2307 19.3497 13.0774
internal_count=108 84 57
is_linear=0
shrinkage=0.1


Tree=11
num_leaves=4
num_cat=1
split_feature=5 7 19
split_gain=1.52576 1.96864 2.5969
threshold=0.027262345066980737 0 15.447132619034386
decision_type=2 1 2
left_child=-1 -2 -3
right_child=1 2 -4
leaf_value=0.048376393580398469 -0.04831546802986756 0.060527279637877018 -0.035558536161513679
leaf_weight=5.149754315614703 8.7291393429040909 5.9277559667825699 5.3527065515518188
leaf_count=21 38 26 23
internal_value=-0.000165719 -0.0126587 0.0149335
internal_weight=25.1594 20.0096 11.2805
internal_count=108 87 49
cat_boundaries=0 1
cat_threshold=2
is_linear=0
shrinkage=0.1


Tree=12
num_leaves=5
num_cat=0
split_feature=13 19 19 18
split_gain=1.44945 1.32327 2.14648 1.92497
threshold=-0.090135090757086658 13.88594096741827 15.447132619034386 0.95986643042886743
decision_type=2 2 2 2
left_child=-1 -2 -3 -4
right_child=1 2 3 -5
leaf_value=-0.046205890071188929 -0.033723137415245678 0.076608366551689899 -0.047561257290338201 0.042659150849283616
leaf_weight=5.3733130097389248 4.7288481295108822 5.5049662739038459 4.6756024211645109 4.7853108048439026
leaf_count=24 20 24 20 20
internal_value=-0.0001701 0.0123898 0.0269604 -0.00192796
internal_weight=25.068 19.6947 14.9659 9.46091
internal_count=108 84 64 40
is_linear=0
shrinkage=0.1


Tree=13
num_leaves=4
num_cat=0
split_feature=12 19 5
split_gain=1.25497 1.29125 1.23449
threshold=0.012419996171503698 15.900996968054375 0.059082195269798334
decision_type=2 2 2
left_child=1 -1 -2
right_child=2 -3 -4
leaf_value=-0.046750134694335491 0.051158459306921991 0.017919020401954144 -0.013546417510879663
leaf_weight=7.9693312197923678 6.8078497350215894 5.0403433442115784 5.2014009803533554
leaf_count=36 28 22 22
internal_value=-0.000177087 -0.0216953 0.0231337
internal_weight=25.0189 13.0097 12.0093
internal_count=108 58 50
is_linear=0
shrinkage=0.1


Tree=14
num_leaves=5
num_cat=0
split_feature=5 1 19 1
split_gain=1.21561 1.69473 1.30833 0.701083
threshold=0.027262345066980737 67.338734004135674 16.290549946286941 78.074973223377711
decision_type=2 2 2 2
left_child=-1 -2 3 -3
right_child=1 2 -4 -5
leaf_value=0.043343600779465696 0.038277976540283518 -0.080543809260852889 0.01224075576572675 -0.02614429554336661
leaf_weight=5.1043777614831951 5.1007786691188839 4.2757164686918241 5.1113592535257331 5.3127531260251999
leaf_count=21 21 20 22 24
internal_value=-0.000169612 -0.0113868 -0.0286203 -0.0504023
internal_weight=24.905 19.8006 14.6998 9.58847
internal_count=108 87 66 44
is_linear=0
shrinkage=0.1


Tree=15
num_leaves=4
num_cat=0
split_feature=13 13 19
split_gain=1.14381 1.09397 1.2352
threshold=-0.090135090757086658 0.10769692330197679 15.447132619034386
decision_type=2 2 2
left_child=-1 2 -2
right_child=1 -3 -4
leaf_value=-0.041562341557733612 0.054266788958516735 -0.031308121745295583 -0.0034751421103553812
leaf_weight=5.2591581344604519 7.1274944543838519 4.6551014184951773 7.7145559638738632
leaf_count=24 31 20 33
internal_value=-0.000175646 0.010988 0.0242539
internal_weight=24.7563 19.4972 14.8421
internal_count=108 84 64
is_linear=0
shrinkage=0.1


Tree=16
num_leaves=4
num_cat=1
split_feature=12 18 7
split_gain=1.02147 1.2108 0.99479
threshold=0.012419996171503698 0.94978778222214966 0
decision_type=2 2 1
left_child=1 -1 -2
right_child=2 -3 -4
leaf_value=-0.053102337130501602 0.050598301058273579 0.0085501425304332131 -0.0072808134637004423
leaf_weight=5.8864996731281298 5.7972188889980298 6.9422284364700317 6.0880123823881149
leaf_count=27 24 31 26
internal_value=-0.000171001 -0.0197393 0.0209507
internal_weight=24.714 12.8287 11.8852
internal_count=108 58 50
cat_boundaries=0 1
cat_threshold=1
is_linear=0
shrinkage=0.1


Tree=17
num_leaves=4
num_cat=1
split_feature=5 7 19
split_gain=0.986646 1.54105 2.01102
threshold=0.027262345066980737 0 15.447132619034386
decision_type=2 1 2
left_child=-1 -2 -3
right_child=1 2 -4
leaf_value=0.039103607253423052 -0.042355458552497796 0.054745127350792837 -0.030755754338428493
leaf_weight=5.0785257220268276 8.5063592791557312 5.8132145255804062 5.2220526337623596
leaf_count=21 38 26 23
internal_value=-0.000165112 -0.0103704 0.0142848
internal_weight=24.6202 19.5416 11.0353
internal_count=108 87 49
cat_boundaries=0 1
cat_threshold=2
is_linear=0
shrinkage=0.1


Tree=18
num_leaves=4
num_cat=0
split_feature=13 19 10
split_gain=0.891966 1.21262 1.7941
threshold=-0.090135090757086658 13.88594096741827 1.0000000180025095e-35
decision_type=2 2 2
left_child=-1 -2 -3
right_child=1 2 -4
leaf_value=-0.037061915050188979 -0.034903239021323883 -0.01070626711307082 0.059150713485409435
leaf_weight=5.1699285954237011 4.6352583765983608 7.4530749320983869 7.2553514540195465
leaf_count=24 20 33 31
internal_value=-0.000164332 0.00969717 0.0237527
internal_weight=24.5136 19.3437 14.7084
internal_count=108 84 64
is_linear=0
shrinkage=0.1


Tree=19
num_leaves=4
num_cat=0
split_feature=1 1 18
split_gain=0.882921 1.59955 1.44316
threshold=67.338734004135674 81.810561993952035 1.0026328216450555
decision_type=2 2 2
left_child=-1 2 -2
right_child=1 -3 -4
leaf_value=0.034091698548020515 -0.0053583497120970403 0.031347014981959069 -0.075618976252664422
leaf_weight=5.7550915032625225 7.9983865171670931 6.0980170071125022 4.6074370592832565
leaf_count=24 36 27 21
internal_value=-0.000159956 -0.010699 -0.0310387
internal_weight=24.4589 18.7038 12.6058
internal_count=108 84 57
is_linear=0
shrinkage=0.1


Tree=20
num_leaves=4
num_cat=0
split_feature=18 19 19
split_gain=0.921086 5.09497 4.25187
threshold=0.94421759439809494 15.754739826511353 15.875245209423889
decision_type=2 2 2
left_child=1 -1 -2
right_child=2 -3 -4
leaf_value=0.03503979943640477 -0.03025763359281199 -0.10049180172604538 0.086076814026324611
leaf_weight=6.7298191189765948 7.5538984388113004 4.7184037119150162 5.3787047266960144
leaf_count=30 34 21 23
internal_value=-0.000161221 -0.0208198 0.0181262
internal_weight=24.3808 11.4482 12.9326
internal_count=108 51 57
is_linear=0
shrinkage=0.1


Tree=21
num_leaves=4
num_cat=0
split_feature=19 5 5
split_gain=0.788288 1.47585 3.49548
threshold=16.683578767425736 0.038340152947659585 0.065726376124104355
decision_type=2 2 2
left_child=1 -1 -3
right_child=-2 2 -4
leaf_value=0.044818850267896837 -0.033357429262742641 -0.063751662665683551 0.047022954230652537
leaf_weight=7.2798889577388826 5.5308107435703269 6.1872978359460813 5.2789420038461685
leaf_count=32 24 28 24
internal_value=-0.000182743 0.00960503 -0.0127521
internal_weight=24.2769 18.7461 11.4662
internal_count=108 84 52
is_linear=0
shrinkage=0.1


Tree=22
num_leaves=4
num_cat=1
split_feature=1 19 7
split_gain=0.765098 1.21858 2.08519
threshold=67.338734004135674 14.058483165911278 0
decision_type=2 2 1
left_child=-1 -2 -3
right_child=1 2 -4
leaf_value=0.03178004030570563 -0.055813943316444195 0.043907850212891515 -0.033052000742089548
leaf_weight=5.7208366096019772 4.4288578182458904 6.8441225439310074 7.2500060796737653
leaf_count=24 20 31 33
internal_value=-0.000185618 -0.0100582 0.00431978
internal_weight=24.2438 18.523 14.0941
internal_count=108 84 64
cat_boundaries=0 1
cat_threshold=2
is_linear=0
shrinkage=0.1


Tree=23
num_leaves=4
num_cat=0
split_feature=18 19 19
split_gain=0.727903 4.18537 3.43595
threshold=0.94421759439809494 15.754739826511353 15.875245209423889
decision_type=2 2 2
left_child=1 -1 -2
right_child=2 -3 -4
leaf_value=0.03150459386238965 -0.027821234471781066 -0.092499817724736533 0.076818584910431018
leaf_weight=6.7208066582679766 7.4830653816461545 4.574369877576828 5.4042574763298035
leaf_count=30 34 21 23
internal_value=-0.000183306 -0.0187153 0.0160591
internal_weight=24.1825 11.2952 12.8873
internal_count=108 51 57
is_linear=0
shrinkage=0.1


Tree=24
num_leaves=4
num_cat=0
split_feature=19 5 5
split_gain=0.689061 1.2277 2.85386
threshold=16.683578767425736 0.038340152947659585 0.065726376124104355
decision_type=2 2 2
left_child=1 -1 -3
right_child=-2 2 -4
leaf_value=0.041184331292523108 -0.031454320155224057 -0.058365472947967359 0.042070655197617414
leaf_weight=7.2302738726139131 5.453686296939849 6.0659055113792402 5.3019547760486603
leaf_count=32 24 28 24
internal_value=-0.000197521 0.00896817 -0.0115222
internal_weight=24.0518 18.5981 11.3679
internal_count=108 84 52
is_linear=0
shrinkage=0.1


Tree=25
num_leaves=5
num_cat=0
split_feature=13 19 19 18
split_gain=0.691197 0.949184 1.58542 0.744411
threshold=-0.090135090757086658 13.88594096741827 15.447132619034386 0.95986643042886743
decision_type=2 2 2 2
left_child=-1 -2 -3 -4
right_child=1 2 3 -5
leaf_value=-0.033336131289486662 -0.031299393244294954 0.06403954799303517 -0.034149707624790651 0.023161519692324783
leaf_weight=4.986126676201823 4.5577354729175594 5.3820767104625693 4.3750236630439741 4.702303871512413
leaf_count=24 20 24 20 20
internal_value=-0.000195809 0.00849329 0.0210363 -0.00446092
internal_weight=24.0033 19.0171 14.4594 9.07733
internal_count=108 84 64 40
is_linear=0
shrinkage=0.1


Tree=26
num_leaves=4
num_cat=0
split_feature=1 18 13
split_gain=0.648679 1.21559 1.92018
threshold=67.338734004135674 0.98229996109374207 0.032529924263880856
decision_type=2 2 2
left_child=-1 2 -2
right_child=1 -3 -4
leaf_value=0.029438934898814759 -0.028772707030803493 -0.040887909443229432 0.054992301659705804
leaf_weight=5.6458737105131176 5.6585101038217562 7.3216794282197943 5.2997436821460724
leaf_count=24 28 33 23
internal_value=-0.000189135 -0.00933995 0.0117386
internal_weight=23.9258 18.2799 10.9583
internal_count=108 84 51
is_linear=0
shrinkage=0.1


Tree=27
num_leaves=4
num_cat=0
split_feature=18 19 19
split_gain=0.602595 3.19857 2.95633
threshold=0.94421759439809494 15.754739826511353 15.875245209423889
decision_type=2 2 2
left_child=1 -1 -2
right_child=2 -3 -4
leaf_value=0.026177675700560822 -0.02643485816639873 -0.083719535723318736 0.071079514695102916
leaf_weight=6.7034864723682421 7.3809756040573102 4.3780622929334641 5.3715242445468903
leaf_count=30 34 21 23
internal_value=-0.000182821 -0.0172402 0.0146395
internal_weight=23.834 11.0815 12.7525
internal_count=108 51 57
is_linear=0
shrinkage=0.1


Tree=28
num_leaves=4
num_cat=0
split_feature=19 19 10
split_gain=0.553609 1.17985 1.84665
threshold=16.683578767425736 14.478541545077595 1.0000000180025095e-35
decision_type=2 2 2
left_child=1 -1 -3
right_child=-2 2 -4
leaf_value=-0.018909320729092412 -0.028601226877272679 -0.0079492187040842589 0.079455665982961249
leaf_weight=8.6228706091642433 5.3192240297794333 5.3053493946790677 4.4402581304311752
leaf_count=39 24 25 20
internal_value=-0.000192449 0.00803429 0.0318739
internal_weight=23.6877 18.3685 9.74561
internal_count=108 84 45
is_linear=0
shrinkage=0.1


Tree=29
num_leaves=4
num_cat=0
split_feature=1 18 19
split_gain=0.524672 1.16239 1.37158
threshold=67.338734004135674 1.0193187162925574 14.478541545077595
decision_type=2 2 2
left_child=-1 2 -2
right_child=1 -3 -4
leaf_value=0.026591111259377156 -0.032920983369246877 -0.044238605100733575 0.036454649541912319
leaf_weight=5.589745074510577 4.6562720835208911 6.0432526916265479 7.3451819717884064
leaf_count=24 21 28 35
internal_value=-0.000179 -0.00847163 0.00953859
internal_weight=23.6345 18.0447 12.0015
internal_count=108 84 56
is_linear=0
shrinkage=0.1


Tree=30
num_leaves=4
num_cat=0
split_feature=18 19 19
split_gain=0.57713 2.80137 2.3597
threshold=0.94421759439809494 15.754739826511353 15.875245209423889
decision_type=2 2 2
left_child=1 -1 -2
right_child=2 -3 -4
leaf_value=0.023516020966112144 -0.022624991558146616 -0.080011831547429205 0.064837652299736093
leaf_weight=6.6875536292791384 7.2872127145528776 4.2905953079462051 5.3488730490207672
leaf_count=30 34 21 23
internal_value=-0.00017356 -0.0169458 0.0143981
internal_weight=23.6142 10.9781 12.6361
internal_count=108 51 57
is_linear=0
shrinkage=0.1


Tree=31
num_leaves=4
num_cat=1
split_feature=13 18 7
split_gain=0.543966 1.5399 1.00337
threshold=0.046299439449303835 0.93347524064040355 0
decision_type=2 2 1
left_child=1 -1 -3
right_child=-2 2 -4
leaf_value=-0.050413496052010447 0.019938853581219409 -0.01861815390107488 0.04879013114024737
leaf_weight=6.0850004255771664 8.5441073477268201 4.432613492012023 4.4002430140972129
leaf_count=30 38 21 19
internal_value=-0.000180935 -0.0117044 0.0149625
internal_weight=23.462 14.9179 8.83286
internal_count=108 70 40
cat_boundaries=0 1
cat_threshold=1
is_linear=0
shrinkage=0.1


Tree=32
num_leaves=4
num_cat=1
split_feature=5 7 19
split_gain=1.92858 1.61111 1.37094
threshold=0.025181325795659838 0 15.447132619034386
decision_type=2 1 2
left_child=-1 -2 -3
right_child=1 2 -4
leaf_value=0.062646980261106447 -0.046138373274715143 0.045383585042139941 -0.025671543095941253
leaf_weight=4.0416501909494427 8.4303424805402756 5.7922887653112411 5.1116567552089691
leaf_count=18 39 27 24
internal_value=-0.00017601 -0.0133086 0.0120737
internal_weight=23.3759 19.3343 10.9039
internal_count=108 90 51
cat_boundaries=0 1
cat_threshold=2
is_linear=0
shrinkage=0.1


Tree=33
num_leaves=4
num_cat=0
split_feature=1 1 12
split_gain=0.508373 1.32156 1.02493
threshold=81.810561993952035 75.094729977117794 -0.036727879715980488
decision_type=2 2 2
left_child=1 2 -1
right_child=-2 -3 -4
leaf_value=0.046111734575815189 0.025233470648936437 -0.049278784625361172 -0.013955575887275321
leaf_weight=4.7290462553501165 5.8828228861093512 5.5027093067765227 7.113776311278345
leaf_count=22 27 27 32
internal_value=-0.00016941 -0.00878492 0.0100304
internal_weight=23.2284 17.3455 11.8428
internal_count=108 81 54
is_linear=0
shrinkage=0.1


Tree=34
num_leaves=4
num_cat=0
split_feature=13 1 19
split_gain=0.528703 0.935089 0.87788
threshold=-0.090135090757086658 81.247199455370676 14.627793049164039
decision_type=2 2 2
left_child=-1 2 -2
right_child=1 -3 -4
leaf_value=-0.029756479964012112 -0.037799121373867844 0.045966023347692259 0.014240436906928777
leaf_weight=4.7923717051744488 5.2504594624042538 4.7111342847347251 8.4728602916002256
leaf_count=24 24 21 39
internal_value=-0.000166081 0.00752648 -0.00566958
internal_weight=23.2268 18.4345 13.7233
internal_count=108 84 63
is_linear=0
shrinkage=0.1


Tree=35
num_leaves=4
num_cat=0
split_feature=13 18 5
split_gain=0.484626 1.26643 1.16556
threshold=0.046299439449303835 0.93347524064040355 0.043017070566029554
decision_type=2 2 2
left_child=1 -1 -3
right_child=-2 2 -4
leaf_value=-0.046767145321885049 0.018928950190009793 -0.024695966771605855 0.048220533909107216
leaf_weight=5.9418063238263157 8.4517030566930753 4.238774895668028 4.5404690802097321
leaf_count=30 38 19 21
internal_value=-0.000156919 -0.0111146 0.0130152
internal_weight=23.1728 14.7211 8.77924
internal_count=108 70 40
is_linear=0
shrinkage=0.1


Tree=36
num_leaves=4
num_cat=0
split_feature=19 18 1
split_gain=0.517798 1.03391 2.66213
threshold=16.683578767425736 0.87763802282216818 74.035832582802087
decision_type=2 2 2
left_child=1 -1 -3
right_child=-2 2 -4
leaf_value=0.050327585617806959 -0.028067172787607276 0.04286669781870156 -0.045924233983950957
leaf_weight=4.3468563705682817 5.1632472723722449 6.175390422344206 7.4507513046264648
leaf_count=21 24 28 35
internal_value=-0.000155705 0.00786265 -0.00568403
internal_weight=23.1362 17.973 13.6261
internal_count=108 84 63
is_linear=0
shrinkage=0.1


Tree=37
num_leaves=4
num_cat=0
split_feature=13 5 18
split_gain=0.503615 1.70494 1.98468
threshold=0.10769692330197679 0.062105503860558263 0.98229996109374207
decision_type=2 2 2
left_child=1 2 -1
right_child=-2 -3 -4
leaf_value=0.021498232231176549 -0.030521555119086236 0.059568110976618953 -0.054769003833211462
leaf_weight=8.1703180968761497 4.4164782613515845 4.6411358416080466 5.8587216138839713
leaf_count=39 20 22 27
internal_value=-0.000154333 0.00702911 -0.010352
internal_weight=23.0867 18.6702 14.029
internal_count=108 88 66
is_linear=0
shrinkage=0.1


Tree=38
num_leaves=4
num_cat=1
split_feature=5 7 19
split_gain=0.437281 1.50729 1.31105
threshold=0.027262345066980737 0 15.447132619034386
decision_type=2 1 2
left_child=-1 -2 -3
right_child=1 2 -4
leaf_value=0.027182562170599445 -0.039603135418215737 0.051283365363440206 -0.019837455476738097
leaf_weight=4.6703263074159649 8.0375438407063484 5.5455310568213463 4.8665486127138138
leaf_count=21 38 26 23
internal_value=-0.000151685 -0.00707106 0.0180419
internal_weight=23.1199 18.4496 10.4121
internal_count=108 87 49
cat_boundaries=0 1
cat_threshold=2
is_linear=0
shrinkage=0.1


Tree=39
num_leaves=4
num_cat=0
split_feature=13 1 19
split_gain=0.456416 0.797859 0.846204
threshold=-0.090135090757086658 81.247199455370676 14.627793049164039
decision_type=2 2 2
left_child=-1 2 -2
right_child=1 -3 -4
leaf_value=-0.027842154208132741 -0.03705390812496074 0.042576503247865841 0.014308812710856137
leaf_weight=4.7286741137504604 5.1806336939334896 4.6902768760919562 8.4221861436963064
leaf_count=24 24 21 39
internal_value=-0.000148213 0.00701053 -0.00525268
internal_weight=23.0218 18.2931 13.6028
internal_count=108 84 63
is_linear=0
shrinkage=0.1


Tree=40
num_leaves=4
num_cat=0
split_feature=18 1 19
split_gain=0.410891 2.3589 1.92317
threshold=0.94421759439809494 73.006427361368395 15.875245209423889
decision_type=2 2 2
left_child=1 -1 -2
right_child=2 -3 -4
leaf_value=-0.073274374782833412 -0.021545569467239598 0.023424315302991928 0.058166309758133805
leaf_weight=4.1593475937843341 7.1472880244255048 6.4112605080008507 5.2499625980854034
leaf_count=20 34 31 23
internal_value=-0.000140006 -0.0146249 0.0122107
internal_weight=22.9679 10.5706 12.3973
internal_count=108 51 57
is_linear=0
shrinkage=0.1


Tree=41
num_leaves=4
num_cat=0
split_feature=19 5 5
split_gain=0.468106 1.03172 2.1118
threshold=16.683578767425736 0.038340152947659585 0.065726376124104355
decision_type=2 2 2
left_child=1 -1 -3
right_child=-2 2 -4
leaf_value=0.037686762050880777 -0.026856781648812666 -0.053755638442309163 0.034456207298361206
leaf_weight=6.9245376884937349 5.0971828401088706 5.6914673596620542 5.187610074877739
leaf_count=32 24 28 24
internal_value=-0.000136834 0.0075131 -0.0116925
internal_weight=22.9008 17.8036 10.8791
internal_count=108 84 52
is_linear=0
shrinkage=0.1


Tree=42
num_leaves=4
num_cat=0
split_feature=1 18 13
split_gain=0.484224 1.10667 1.18351
threshold=67.338734004135674 0.98229996109374207 0.032529924263880856
decision_type=2 2 2
left_child=-1 2 -2
right_child=1 -3 -4
leaf_value=0.025907703551384872 -0.020739321874464992 -0.038940736192635148 0.046796253707605595
leaf_weight=5.4388299137353924 5.2783313542604464 7.0211215242743483 5.1038690805435181
leaf_count=24 28 33 23
internal_value=-0.000136901 -0.00827628 0.012461
internal_weight=22.8422 17.4033 10.3822
internal_count=108 84 51
is_linear=0
shrinkage=0.1


Tree=43
num_leaves=4
num_cat=0
split_feature=13 5 18
split_gain=0.422167 1.34389 1.64549
threshold=0.10769692330197679 0.062105503860558263 0.98229996109374207
decision_type=2 2 2
left_child=1 2 -1
right_child=-2 -3 -4
leaf_value=0.019859946568870385 -0.028148797073585988 0.053069169145607754 -0.050326719692522462
leaf_weight=8.0714841037988716 4.3500265181064597 4.6344674527645102 5.6986357048153868
leaf_count=39 20 22 27
internal_value=-0.000131625 0.00649039 -0.00918615
internal_weight=22.7546 18.4046 13.7701
internal_count=108 88 66
is_linear=0
shrinkage=0.1


Tree=44
num_leaves=4
num_cat=0
split_feature=18 1 19
split_gain=0.497536 1.81956 1.63319
threshold=0.94421759439809494 73.006427361368395 15.875245209423889
decision_type=2 2 2
left_child=1 -1 -2
right_child=2 -3 -4
leaf_value=-0.068088705308528327 -0.017878803073415162 0.017115644907985391 0.056035064751177616
leaf_weight=4.103535547852518 7.0197814926505071 6.4394561499357224 5.20671047270298
leaf_count=20 34 31 23
internal_value=-0.000128941 -0.0160475 0.0135978
internal_weight=22.7695 10.543 12.2265
internal_count=108 51 57
is_linear=0
shrinkage=0.1


Tree=45
num_leaves=4
num_cat=0
split_feature=1 18 13
split_gain=0.516118 0.825658 1.00452
threshold=67.338734004135674 0.98229996109374207 0.038042930263534565
decision_type=2 2 2
left_child=-1 2 -2
right_child=1 -3 -4
leaf_value=0.026792840026159559 -0.01852555035478555 -0.035339582243807142 0.044149002929983992
leaf_weight=5.4215359240770367 5.7630717903375643 6.9125638604164115 4.597206249833107
leaf_count=24 30 33 21
internal_value=-0.000124735 -0.00857352 0.00928527
internal_weight=22.6944 17.2728 10.3603
internal_count=108 84 51
is_linear=0
shrinkage=0.1


Tree=46
num_leaves=4
num_cat=0
split_feature=18 19 1
split_gain=0.483934 1.55081 1.43427
threshold=0.94421759439809494 15.669495414783077 72.677581974444664
decision_type=2 2 2
left_child=1 -1 -2
right_child=2 -3 -4
leaf_value=0.015821678912641923 0.05714518588842174 -0.062507424796766672 -0.013632465905427247
leaf_weight=6.2541633918881434 4.6431471407413465 4.24204271286726 7.4683680832386017
leaf_count=29 21 22 36
internal_value=-0.000118834 -0.015835 0.0135013
internal_weight=22.6077 10.4962 12.1115
internal_count=108 51 57
is_linear=0
shrinkage=0.1


Tree=47
num_leaves=4
num_cat=0
split_feature=19 5 5
split_gain=0.403385 1.10649 1.62699
threshold=16.683578767425736 0.038340152947659585 0.065726376124104355
decision_type=2 2 2
left_child=1 -1 -3
right_child=-2 2 -4
leaf_value=0.038509066833519144 -0.025265396002484036 -0.050622881950018288 0.027368848263922215
leaf_weight=6.8154630064964357 4.9707532972097388 5.5492895990610105 5.1636827886104584
leaf_count=32 24 28 24
internal_value=-0.000121245 0.00700919 -0.0130306
internal_weight=22.4992 17.5284 10.713
internal_count=108 84 52
is_linear=0
shrinkage=0.1


Tree=48
num_leaves=4
num_cat=0
split_feature=18 1 19
split_gain=0.384729 1.52166 1.4489
threshold=0.94421759439809494 73.006427361368395 15.875245209423889
decision_type=2 2 2
left_child=1 -1 -2
right_child=2 -3 -4
leaf_value=-0.062526656856821322 -0.017827706593374505 0.016137364622604837 0.052262113220322176
leaf_weight=4.006151497364046 6.9251573681831342 6.367554597556591 5.1373137682676315
leaf_count=20 34 31 23
internal_value=-0.000120721 -0.0142414 0.012023
internal_weight=22.4362 10.3737 12.0625
internal_count=108 51 57
is_linear=0
shrinkage=0.1


Tree=49
num_leaves=4
num_cat=0
split_feature=1 18 13
split_gain=0.455212 0.778213 0.797662
threshold=67.338734004135674 0.98229996109374207 0.038042930263534565
decision_type=2 2 2
left_child=-1 2 -2
right_child=1 -3 -4
leaf_value=0.025370009161356157 -0.015724957641876983 -0.034177326848245246 0.040584763255492505
leaf_weight=5.3357290476560619 5.6315367743372935 6.8447950556874266 4.5467298477888107
leaf_count=24 30 33 21
internal_value=-0.000116152 -0.00810457 0.00942914
internal_weight=22.3588 17.0231 10.1783
internal_count=108 84 51
is_linear=0
shrinkage=0.1


end of trees

feature_importances:
iv=38
confidence=27
stop_loss_pct=25
pcr=25
distance_to_ema20_pct=18
distance_to_vwap_pct=12
trend_5m=9
trend_aligned_15m=2

parameters:
[boosting: gbdt]
[objective: binary]
[metric: auc]
[tree_learner: serial]
[device_type: cpu]
[data_sample_strategy: bagging]
[data: ]
[valid: ]
[num_iterations: 50]
[learning_rate: 0.1]
[num_leaves: 15]
[num_threads: 0]
[seed: 0]
[deterministic: 0]
[force_col_wise: 0]
[force_row_wise: 0]
[histogram_pool_size: -1]
[max_depth: -1]
[min_data_in_leaf: 20]
[min_sum_hessian_in_leaf: 0.001]
[bagging_fraction: 1]
[pos_bagging_fraction: 1]
[neg_bagging_fraction: 1]
[bagging_freq: 0]
[bagging_seed: 3]
[bagging_by_query: 0]
[feature_fraction: 1]
[feature_fraction_bynode: 1]
[feature_fraction_seed: 2]
[extra_trees: 0]
[extra_seed: 6]
[early_stopping_round: 0]
[early_stopping_min_delta: 0]
[first_metric_only: 0]
[max_delta_step: 0]
[lambda_l1: 0]
[lambda_l2: 0]
[linear_lambda: 0]
[min_gain_to_split: 0]
[drop_rate: 0.1]
[max_drop: 50]
[skip_drop: 0.5]
[xgboost_dart_mode: 0]
[uniform_drop: 0]
[drop_seed: 4]
[top_rate: 0.2]
[other_rate: 0.1]
[min_data_per_group: 100]
[max_cat_threshold: 32]
[cat_l2: 10]
[cat_smooth: 10]
[max_cat_to_onehot: 4]
[top_k: 20]
[monotone_constraints: ]
[monotone_constraints_method: basic]
[monotone_penalty: 0]
[feature_contri: ]
[forcedsplits_filename: ]
[refit_decay_rate: 0.9]
[cegb_tradeoff: 1]
[cegb_penalty_split: 0]
[cegb_penalty_feature_lazy: ]
[cegb_penalty_feature_coupled: ]
[path_smooth: 0]
[interaction_constraints: ]
[verbosity: -1]
[saved_feature_importance_type: 0]
[use_quantized_grad: 0]
[num_grad_quant_bins: 4]
[quant_train_renew_leaf: 0]
[stochastic_rounding: 1]
[linear_tree: 0]
[max_bin: 255]
[max_bin_by_feature: ]
[min_data_in_bin: 3]
[bin_construct_sample_cnt: 200000]
[data_random_seed: 1]
[is_enable_sparse: 1]
[enable_bundle: 1]
[use_missing: 1]
[zero_as_missing: 0]
[feature_pre_filter: 1]
[pre_partition: 0]
[two_round: 0]
[header: 0]
[label_column: ]
[weight_column: ]
[group_column: ]
[ignore_column: ]
[categorical_feature: 0,7,8,9,20,30]
[forcedbins_filename: ]
[precise_float_parser: 0]
[parser_config_file: ]
[objective_seed: 5]
[num_class: 1]
[is_unbalance: 0]
[scale_pos_weight: 1]
[sigmoid: 1]
[boost_from_average: 1]
[reg_sqrt: 0]
[alpha: 0.9]
[fair_c: 1]
[poisson_max_delta_step: 0.7]
[tweedie_variance_power: 1.5]
[lambdarank_truncation_level: 30]
[lambdarank_norm: 1]
[label_gain: ]
[lambdarank_position_bias_regularization: 0]
[eval_at: ]
[multi_error_top_k: 1]
[auc_mu_weights: ]
[num_machines: 1]
[local_listen_port: 12400]
[time_out: 120]
[machine_list_filename: ]
[machines: ]
[gpu_platform_id: -1]
[gpu_device_id: -1]
[gpu_use_dp: 0]
[num_gpu: 1]

end of parameters

pandas_categorical:[["BEARISH_BREAKOUT", "BULLISH_BREAKOUT", "RESISTANCE_BOUNCE", "SUPPORT_BOUNCE"], ["DOWN", "UP"], ["DOWN", "UP"], ["NEUTRAL"], ["BEARISH", "BULLISH"], ["NORMAL"]]
